34 128
1 -0.14441456 -0.11491766 -0.123977356 -0.19571523 0.19570395 0.3820806 -0.21233168 0.15634589 0.010485152 -0.011840858 -0.116480015 0.18963909 0.1966186 -0.10405665 0.015198781 -0.01855429 0.082929 -0.11879141 -0.049862362 0.11598409 -0.010315833 -0.31687218 0.38328078 0.3383533 -0.09306035 -0.13237214 0.11063921 0.20467213 -0.10260733 0.1209459 -0.14748442 -0.07407551 0.023179328 0.11295231 0.09427708 -0.18071641 0.27704346 0.24751972 -0.19735721 -0.304582 -0.15634692 0.011441624 -0.03979585 0.26339608 0.28239435 0.1412296 0.03486786 -0.23280634 0.08117941 -0.067542434 -0.30560762 -0.32975224 -0.09360471 -0.2837669 0.23126368 -0.057879984 0.38723123 -0.074480146 0.19019149 0.008008922 -0.24970317 0.22068068 0.061013047 -0.026685 0.1542821 0.2611629 0.20765948 -0.07128617 0.02792237 0.22200285 0.2328031 0.14108884 -0.011361828 -0.05930785 0.13693218 0.055957373 -0.18051015 0.017084878 -0.18217364 0.2577402 -0.2775103 0.02496054 0.013079995 0.0406623 -0.027795192 -0.21470107 0.035687335 -0.09811439 -0.028162856 0.067888565 0.1535221 0.014493815 0.05354984 -0.08845993 0.19822673 0.027258273 -0.0015758589 0.102999896 0.06444701 0.058239456 -0.008276218 -0.15800439 0.1209896 -0.17786907 0.22321379 -0.01182718 0.2516486 0.039498862 0.11097734 -0.15166582 0.3787564 0.06251501 -0.2960903 0.00969891 -0.40273798 0.13482621 -0.13308464 -0.17703004 -0.13474838 0.059624966 -0.27049935 -0.0274901 -0.1354031 0.4974574 -0.35900494 0.0025714752 -0.2220081 0.37920213
34 -0.12615168 -0.07402448 -0.120855555 -0.030958716 0.21680278 0.24809001 -0.31268957 0.19889088 -0.063635424 0.054305516 -0.29024255 0.15163922 0.17316933 -0.034892034 -0.019097107 0.01823653 0.165579 -0.15741651 0.00025994072 0.065391414 -0.010260386 -0.27579692 0.37612176 0.34973687 -0.011305055 -0.15734194 0.031930618 0.19631568 -0.11103729 0.16705741 -0.06454794 -0.14358063 0.17736727 0.23419166 0.058103573 -0.15238695 0.32726848 0.25783014 -0.14313282 -0.30712152 -0.06267779 -0.004596132 -0.18414392 0.13969055 0.23587838 0.07486699 0.051184867 -0.21546192 0.029288892 -0.10791901 -0.21457033 -0.3508868 -0.081214696 -0.3201951 0.28152043 -0.08994486 0.26380965 -0.015853673 0.22581679 0.070075125 -0.25687927 0.27834976 0.021443078 0.11116306 0.12976737 0.30611613 0.09057955 -0.10264545 -0.0033651728 0.15468585 0.09776667 0.13565928 -0.003236376 0.005767409 0.110689916 0.17946069 -0.17573607 -0.11076896 -0.17788427 0.18363921 -0.21987556 0.09107699 0.08951903 0.00475342 0.0455629 -0.19428809 0.057542305 -0.1015107 0.010874314 0.17583084 0.16759947 0.048340682 0.00060968136 -0.12171816 0.24633628 -0.016678737 -0.08901209 0.107907034 0.1520683 0.09003672 0.062583454 -0.06651753 0.08429877 -0.33306727 0.18043114 -0.0445504 0.01742341 0.05366472 0.060901687 -0.075257085 0.23498419 -0.038517386 -0.18899898 0.12240827 -0.34757987 0.08744886 -0.088395596 -0.12242409 -0.12788521 0.07295763 -0.2574446 -0.05196199 -0.15618834 0.43424606 -0.36413565 -0.028695341 -0.13543493 0.33912322
33 -0.12294952 -0.068101615 -0.1215725 0.002919407 0.23509052 0.2311768 -0.34251136 0.20930016 -0.08388877 0.069363944 -0.3335366 0.14976637 0.17637677 -0.013605252 -0.03024714 0.03221766 0.18727818 -0.17240687 0.014476409 0.048954353 -0.01304743 -0.26940927 0.38707185 0.35817736 0.005187082 -0.1701537 0.020426499 0.19407973 -0.124069124 0.17891859 -0.045908753 -0.15618534 0.21999262 0.27144647 0.051485896 -0.15113829 0.34699103 0.2716586 -0.1423581 -0.31862524 -0.05007366 0.00062871724 -0.2181052 0.12001689 0.22952083 0.05111677 0.058900926 -0.21576607 0.014087203 -0.119828925 -0.19512364 -0.36141646 -0.079794124 -0.34507978 0.3001498 -0.09695439 0.24453703 -0.002796944 0.2415916 0.08289781 -0.26477793 0.30310765 0.008738207 0.14720318 0.121858336 0.32004693 0.073252656 -0.10988147 -0.01241716 0.14503057 0.07525164 0.14982527 -0.0050187535 0.023249056 0.11229607 0.20970683 -0.18530427 -0.13461058 -0.1789877 0.17109832 -0.22201473 0.11197838 0.10880987 0.0014959794 0.06682339 -0.19607215 0.065263174 -0.10537946 0.02200935 0.20472245 0.1730318 0.056801677 -0.006147969 -0.13129577 0.2647561 -0.034867432 -0.10279513 0.10842773 0.17010243 0.09814413 0.077555604 -0.045099862 0.080035165 -0.37546626 0.17793363 -0.047917984 -0.031070067 0.060711917 0.0507452 -0.058888115 0.22087741 -0.05635856 -0.16789047 0.15882607 -0.3409245 0.076042354 -0.08003885 -0.10675885 -0.12525946 0.07353829 -0.25950402 -0.059783418 -0.16501293 0.43356732 -0.37189975 -0.037092663 -0.119106196 0.34426636
3 -0.15570363 -0.10299485 -0.13342118 -0.16890056 0.22184753 0.3816129 -0.27061957 0.1896679 -0.009498721 0.011498646 -0.18964823 0.2055621 0.21807992 -0.09659518 0.007561596 0.0030073624 0.11833046 -0.15297596 -0.034902886 0.1183314 -0.01627994 -0.33952695 0.42315882 0.3700103 -0.07345585 -0.15014717 0.10102152 0.22990417 -0.1223754 0.15666889 -0.13936849 -0.10485556 0.08074963 0.17151728 0.091992386 -0.1959932 0.3257742 0.27661082 -0.20105354 -0.3396649 -0.14797884 0.007499693 -0.086861506 0.2568275 0.30356422 0.1356361 0.04061527 -0.2593783 0.07364409 -0.09416293 -0.3059758 -0.3662432 -0.09478621 -0.3327545 0.28284043 -0.06862272 0.3947376 -0.071617 0.21966171 0.0329671 -0.2788869 0.2712248 0.052757353 0.011273779 0.15606056 0.3009406 0.19022162 -0.083244324 0.018096697 0.22943288 0.22073789 0.14897469 -0.017502956 -0.052161362 0.14405522 0.09640407 -0.204774 -0.028286275 -0.19700417 0.25940236 -0.29521054 0.0480663 0.041505758 0.03028054 -0.0054920665 -0.22295237 0.04171558 -0.099512324 -0.013140757 0.11629795 0.17859615 0.035734035 0.03573846 -0.11345793 0.23772539 0.011257302 -0.030426916 0.118576966 0.105202086 0.08114988 0.008680761 -0.14813986 0.118545085 -0.2449521 0.24278557 -0.023617063 0.20825028 0.039141916 0.10365365 -0.14815266 0.37818322 0.034582645 -0.29528728 0.05298624 -0.42406246 0.1359319 -0.13289681 -0.18469469 -0.14007775 0.07201145 -0.2940408 -0.036671303 -0.14559503 0.53605956 -0.39860198 -0.0026865213 -0.22049175 0.40468338
2 -0.15026264 -0.100897625 -0.1368979 -0.1280353 0.22701682 0.34416962 -0.28662565 0.1920967 -0.03023432 0.028677972 -0.22322957 0.1980405 0.20188706 -0.080393635 0.00039124413 0.013203303 0.12876302 -0.15428934 -0.0268917 0.09791537 -0.011584476 -0.3212593 0.41615674 0.36825502 -0.055182487 -0.15731093 0.07587868 0.22145638 -0.11516912 0.15786217 -0.11666468 -0.11800204 0.11020154 0.19530295 0.087721825 -0.18076722 0.32640347 0.27082747 -0.17875361 -0.33165002 -0.12398941 0.0022335039 -0.119614296 0.22631986 0.2838133 0.11764399 0.044182587 -0.2473947 0.057989422 -0.0965498 -0.27920917 -0.36845306 -0.08882831 -0.3343916 0.28084543 -0.073763266 0.35447094 -0.04887812 0.22824597 0.040858995 -0.26738128 0.27932128 0.04939325 0.037990987 0.15045395 0.30828306 0.16754982 -0.09070342 0.013370917 0.20875354 0.18851273 0.14349149 -0.015762987 -0.032525685 0.13899215 0.12798001 -0.20264845 -0.054636292 -0.1966309 0.23606911 -0.26950246 0.05899161 0.05333241 0.019658916 0.01526528 -0.21605727 0.05142923 -0.10009918 -0.01199772 0.13860875 0.17575836 0.037713468 0.029718827 -0.117804654 0.24539517 0.0055228695 -0.049571995 0.11721544 0.11820747 0.08031036 0.024288004 -0.12344656 0.10682829 -0.26655704 0.22518258 -0.033802148 0.14761125 0.045976195 0.097152725 -0.12320804 0.34056258 0.019271959 -0.26208404 0.07253775 -0.40968162 0.12259188 -0.11885248 -0.16840698 -0.14249693 0.071005195 -0.28688896 -0.04387113 -0.15149756 0.5123527 -0.3941174 -0.007070813 -0.20048957 0.392048
4 -0.14372939 -0.092532545 -0.12792693 -0.1137952 0.21150704 0.3254898 -0.27024195 0.18582687 -0.026935278 0.022442935 -0.20637769 0.1840033 0.19809319 -0.06780012 -0.0040371837 0.008636009 0.12413836 -0.1440117 -0.022929952 0.09406741 -0.01262742 -0.30579904 0.3914151 0.3519212 -0.053299762 -0.14766465 0.0741162 0.20770246 -0.112424135 0.15458934 -0.10356602 -0.11149477 0.10919633 0.185455 0.079768896 -0.17635465 0.3124687 0.25595534 -0.17386784 -0.31148085 -0.11352116 0.0034192826 -0.11728477 0.21014608 0.26737875 0.110349506 0.041700307 -0.23459052 0.05576785 -0.09655728 -0.2659021 -0.35005754 -0.09237269 -0.319725 0.26960492 -0.070204556 0.33539078 -0.04839344 0.21858348 0.0372767 -0.2567674 0.26123375 0.042459816 0.038998533 0.1463653 0.2893982 0.15583865 -0.08589515 0.012530268 0.1981944 0.17661938 0.13679565 -0.010363458 -0.031950537 0.132105 0.12017279 -0.18764766 -0.05277514 -0.1885192 0.22415566 -0.25465935 0.06284809 0.050407965 0.017701464 0.009836614 -0.201826 0.051949304 -0.09773148 -0.0061670737 0.13205047 0.16944718 0.03708471 0.030860703 -0.11264515 0.23345132 0.00582164 -0.04940702 0.10730272 0.11759558 0.08091514 0.022670459 -0.11930007 0.10826227 -0.25777698 0.20742576 -0.03144644 0.14194137 0.04545861 0.09350476 -0.11679274 0.3233848 0.012606202 -0.24857552 0.06909975 -0.38810682 0.11153408 -0.11341876 -0.1557639 -0.13483286 0.06696064 -0.27436903 -0.040832523 -0.14468344 0.4821784 -0.37097996 -0.010528171 -0.18668905 0.36812198
32 -0.13106921 -0.069015816 -0.115991 -0.039355367 0.2253434 0.25597918 -0.3073134 0.19875532 -0.060137622 0.057932433 -0.27850276 0.16223513 0.18155226 -0.03178041 -0.019349733 0.020865513 0.15910146 -0.15231143 0.009014791 0.06416288 -0.014764585 -0.28027532 0.37569836 0.34765247 -0.015694521 -0.1558038 0.03451472 0.1945319 -0.110220104 0.16585505 -0.06254692 -0.13437825 0.17824595 0.24013096 0.060032543 -0.15097412 0.3224793 0.256693 -0.14104226 -0.31158137 -0.064351134 0.004436487 -0.17953022 0.14838055 0.2404157 0.073077485 0.052333802 -0.21918508 0.025884064 -0.11538534 -0.21515496 -0.34754068 -0.08030904 -0.3291554 0.28295463 -0.08387584 0.26834625 -0.012813962 0.23056224 0.06450003 -0.252158 0.28126454 0.022707848 0.10619852 0.12998839 0.30325702 0.10104589 -0.0982834 -0.0061054733 0.16062191 0.10678053 0.13630256 -0.001848802 0.004157317 0.11823827 0.17047097 -0.18667533 -0.101747945 -0.1815781 0.18221569 -0.2255305 0.09514967 0.08645466 -0.0012223496 0.051097106 -0.19184852 0.06547151 -0.101297215 0.0074431654 0.1804663 0.17217809 0.045269985 0.007057902 -0.119939424 0.25416988 -0.024315357 -0.08879926 0.10819863 0.15024266 0.09442154 0.055470973 -0.070468746 0.0879419 -0.3205789 0.1817338 -0.043088395 0.022698259 0.04696005 0.0680569 -0.073291376 0.25092632 -0.029202854 -0.19113053 0.12864977 -0.3491953 0.0832681 -0.08424998 -0.12277706 -0.12985729 0.07262964 -0.25560516 -0.050977796 -0.14499635 0.4372675 -0.36359996 -0.022087263 -0.1352756 0.34525934
14 -0.14154592 -0.09322076 -0.12754294 -0.10873159 0.2123844 0.32153735 -0.2802288 0.18586849 -0.032252513 0.029966969 -0.21871784 0.186644 0.19664052 -0.069040194 -0.0018952842 0.013467775 0.1276204 -0.14771208 -0.019755905 0.08896059 -0.017065233 -0.30660307 0.39247787 0.35587755 -0.05338687 -0.15373278 0.07151576 0.2046695 -0.112336546 0.15142106 -0.099965625 -0.11736237 0.11850654 0.19463147 0.077727444 -0.17084014 0.31874752 0.2572958 -0.16906595 -0.31437162 -0.11526668 0.0055734557 -0.12378729 0.20379359 0.26912016 0.10456586 0.04386439 -0.23992197 0.057116028 -0.09572619 -0.26027405 -0.35363787 -0.09012375 -0.32126823 0.27195662 -0.07688521 0.33468252 -0.04535476 0.21582642 0.04690018 -0.26053366 0.26851285 0.04480118 0.04459679 0.14485306 0.29510993 0.15030123 -0.08934544 0.012231105 0.19631875 0.1737209 0.14053576 -0.011569435 -0.03006893 0.13177724 0.12742355 -0.19137873 -0.05312337 -0.18526438 0.21822754 -0.26026127 0.06430145 0.05272691 0.018614607 0.0119264405 -0.20482457 0.05353658 -0.10134046 -0.009376352 0.1372871 0.16906694 0.035656128 0.022200583 -0.10922965 0.24093108 0.0022750774 -0.05188875 0.10781815 0.11534959 0.08368718 0.02566135 -0.11476354 0.1013772 -0.26646143 0.20960207 -0.033709724 0.13495062 0.04116699 0.09192228 -0.112342864 0.3203921 0.013311019 -0.24248318 0.07638899 -0.38761047 0.110278405 -0.11098746 -0.15713835 -0.1343656 0.069336094 -0.27098405 -0.03916975 -0.14917277 0.48111954 -0.37530506 -0.013383738 -0.18107206 0.37487447
24 -0.13302073 -0.065382496 -0.11900713 9.0206464e-05 0.25125322 0.23928414 -0.3583442 0.22199604 -0.08292802 0.07081255 -0.34370738 0.16201769 0.19056886 -0.021329518 -0.027448652 0.029192116 0.19061428 -0.17617428 0.021434477 0.05264508 -0.015043868 -0.28630823 0.40548575 0.37918985 -0.0038464442 -0.17935991 0.0229596 0.20046383 -0.13143495 0.19078226 -0.045070253 -0.16226706 0.22811164 0.28518766 0.056905117 -0.15902251 0.35709435 0.2776764 -0.14592808 -0.33177388 -0.052714262 0.0057430835 -0.22074227 0.12765725 0.24957018 0.057282664 0.058111094 -0.23177558 0.0155481165 -0.13137703 -0.20934333 -0.37847054 -0.08709297 -0.3615264 0.31666762 -0.102762744 0.25704154 0.0017349131 0.25481823 0.08933345 -0.2758822 0.3156403 0.012148626 0.15375376 0.13045838 0.33618647 0.07855734 -0.117925294 -0.0067578047 0.15323597 0.08517698 0.15723386 -0.0077305995 0.017347 0.120248735 0.21695633 -0.200025 -0.14010645 -0.18760274 0.18562955 -0.22987187 0.118545026 0.11386749 0.0003899391 0.068426095 -0.19987589 0.07155345 -0.10739886 0.019786105 0.21555667 0.18091886 0.055571344 -0.008419226 -0.13505137 0.28067565 -0.033278078 -0.10882793 0.113390945 0.17490733 0.10640776 0.07726375 -0.047441997 0.08942261 -0.3921321 0.18941253 -0.054535918 -0.026039919 0.05525079 0.05717987 -0.06584465 0.23265368 -0.057909295 -0.17806304 0.1638115 -0.35690027 0.08089191 -0.08385239 -0.11441626 -0.1364808 0.073287174 -0.27505532 -0.06257163 -0.17078912 0.45221114 -0.39722103 -0.033861253 -0.123612806 0.36050302
8 -0.1398115 -0.09440435 -0.1287109 -0.13830231 0.20881927 0.34290123 -0.25871179 0.17403558 -0.018077059 0.021105452 -0.188568 0.1910818 0.19872896 -0.0820206 -0.0021083546 0.0068331603 0.114026785 -0.14454833 -0.031072568 0.098189965 -0.016176267 -0.3054108 0.39394924 0.34407187 -0.06562897 -0.14584318 0.08163267 0.2026142 -0.11234248 0.14419122 -0.11767506 -0.09959165 0.091122985 0.1734816 0.08763033 -0.1783712 0.30467194 0.25270355 -0.18107061 -0.31431937 -0.127975 0.009880271 -0.09231781 0.22680256 0.2696225 0.11122527 0.046463236 -0.23730834 0.05987197 -0.08851349 -0.27402228 -0.33997515 -0.083436474 -0.30803654 0.26628497 -0.06709203 0.35242227 -0.054784745 0.20699789 0.028229441 -0.25414714 0.25135612 0.051311903 0.02154135 0.14359558 0.28750235 0.16937768 -0.08510411 0.014951979 0.20340754 0.19168758 0.13836317 -0.012793602 -0.04172034 0.13439742 0.10755161 -0.1930512 -0.033059675 -0.18843412 0.22745977 -0.2621052 0.052765425 0.045613285 0.02988061 0.0008101489 -0.20387928 0.048558235 -0.0991382 -0.015219016 0.118737526 0.16632071 0.029774817 0.02909505 -0.101998985 0.23087505 0.0063136015 -0.03428517 0.10525958 0.10118426 0.07700937 0.016650984 -0.122071736 0.104729645 -0.2389799 0.2191267 -0.033095207 0.17128839 0.03621494 0.093261234 -0.12526444 0.34109113 0.03181861 -0.26061508 0.056467276 -0.39020655 0.12238379 -0.11766892 -0.16552666 -0.13317724 0.0658629 -0.26957148 -0.035860714 -0.14041881 0.48780206 -0.3753445 -0.0035148326 -0.19835967 0.3718449
7 -0.14218554 -0.11861301 -0.12606922 -0.20865747 0.18655291 0.38747537 -0.2022108 0.1587625 0.014084082 -0.028387308 -0.10157894 0.18082817 0.20435712 -0.10357714 0.019351363 -0.029089734 0.07468958 -0.120030984 -0.059858862 0.12580779 -0.0065915054 -0.32030386 0.3832488 0.33717853 -0.102122486 -0.13405335 0.1270765 0.2071378 -0.111378945 0.111749366 -0.15800552 -0.068390444 0.0060730404 0.097834356 0.10014847 -0.1823371 0.26535445 0.24943988 -0.20423763 -0.29434916 -0.1742095 0.011980582 -0.023947977 0.2722275 0.29595584 0.14811121 0.035062376 -0.23425016 0.0887343 -0.058898315 -0.31728387 -0.32756427 -0.10116982 -0.27567664 0.2207954 -0.052367777 0.40096924 -0.087559216 0.18305057 0.002733583 -0.257429 0.21583968 0.05719661 -0.027153816 0.15429726 0.25884488 0.20794027 -0.07302237 0.029869815 0.22881463 0.23495512 0.14555421 -0.013678685 -0.06261606 0.14417572 0.04459692 -0.17619579 0.032580834 -0.17527251 0.26991498 -0.29186141 0.022086158 9.398347e-05 0.050325774 -0.040246192 -0.21663202 0.026902726 -0.09919005 -0.022963813 0.050170455 0.14673202 0.008515182 0.05784055 -0.08473579 0.18008691 0.035809353 0.0033694059 0.101639844 0.05424512 0.06255363 -0.011397901 -0.16422936 0.12458096 -0.17644033 0.22917765 -0.009214749 0.27794054 0.0399361 0.1116609 -0.16581464 0.38533017 0.06448117 -0.31134784 -0.00016969569 -0.40875447 0.1383068 -0.13956752 -0.18101783 -0.12956844 0.058459885 -0.27189943 -0.029374618 -0.14050393 0.50957257 -0.363654 0.0034056709 -0.22231972 0.38447747
9 -0.13465331 -0.08325014 -0.12543483 -0.07905369 0.21609697 0.29261824 -0.29250368 0.19243239 -0.04324174 0.04253645 -0.24749571 0.17668153 0.186311 -0.055360094 -0.012803823 0.015376359 0.14030501 -0.15347041 -0.012702231 0.078618586 -0.01742671 -0.2907983 0.3863786 0.3516375 -0.035305068 -0.15385233 0.057482097 0.20251784 -0.11681257 0.15371794 -0.08816954 -0.12645335 0.13853693 0.21199335 0.07661142 -0.16065703 0.32429358 0.25805876 -0.16675428 -0.31021133 -0.091546565 0.0031646986 -0.1444147 0.1770197 0.25300482 0.08718006 0.045388248 -0.22708705 0.04592916 -0.10383453 -0.24581085 -0.35051316 -0.0854468 -0.3230069 0.27792624 -0.07737618 0.3022874 -0.034062937 0.22575843 0.04972798 -0.2586569 0.27016485 0.036549777 0.07505327 0.14202042 0.29751897 0.12621209 -0.09157031 0.006689712 0.17882416 0.13999705 0.14575276 -0.00447506 -0.0096998215 0.12349158 0.15039575 -0.18965603 -0.076334484 -0.18534213 0.20978382 -0.24681267 0.07988861 0.063638836 0.013966848 0.026955368 -0.19867215 0.056291357 -0.10440392 -0.001624676 0.15273225 0.16538385 0.033617694 0.01706478 -0.11096703 0.2403346 -0.0044938275 -0.0608049 0.10239509 0.1330685 0.08211972 0.03975894 -0.09340984 0.1010462 -0.2945086 0.20067891 -0.035078105 0.08849936 0.047882408 0.08142112 -0.10026222 0.28840816 -0.009866112 -0.22060408 0.09637601 -0.36939564 0.10276003 -0.10210355 -0.14040506 -0.13599446 0.07272946 -0.26763898 -0.049910646 -0.1484434 0.46459594 -0.37458494 -0.0201638 -0.16458128 0.36466658
30 -0.13606276 -0.074346825 -0.13023901 -0.012955314 0.24630858 0.25575414 -0.3517979 0.22180265 -0.079361476 0.06980718 -0.33469364 0.17318797 0.18945092 -0.023114817 -0.025421 0.027737489 0.1894281 -0.17617214 0.014427862 0.05609994 -0.017399238 -0.29997632 0.41365784 0.38750634 -0.010966108 -0.18246476 0.02269784 0.21234499 -0.12805256 0.1833879 -0.05342838 -0.15991634 0.21147873 0.27527645 0.06692118 -0.16081877 0.37024152 0.2794852 -0.15897593 -0.3343767 -0.057424925 -0.0048967795 -0.219197 0.14425665 0.25339472 0.07071128 0.059941445 -0.23609056 0.023995802 -0.12509745 -0.22132502 -0.38877565 -0.09464849 -0.36206478 0.3151038 -0.100171104 0.27465698 -0.006290519 0.25133768 0.078313954 -0.2810153 0.31235954 0.016400833 0.13430361 0.13965398 0.3400751 0.090023644 -0.111464255 -0.012798113 0.16971755 0.099276476 0.15621269 -0.0057990258 0.016418166 0.12498848 0.21128279 -0.19824363 -0.129709 -0.19744511 0.1968138 -0.24139078 0.114037655 0.10503421 0.0039359424 0.059871964 -0.21166399 0.06725467 -0.10861716 0.011155694 0.21159124 0.18168867 0.049989656 -0.0010779031 -0.13923743 0.27941105 -0.0311181 -0.10584431 0.110024065 0.17666624 0.09880542 0.07577277 -0.05876352 0.089385994 -0.38226277 0.1978512 -0.049236983 0.0014434613 0.063166186 0.062082883 -0.075005375 0.24768136 -0.050874673 -0.19297174 0.15456177 -0.37257734 0.09242094 -0.09374181 -0.12676413 -0.1436902 0.07982368 -0.28327227 -0.061092976 -0.17255408 0.46572298 -0.40487224 -0.03785498 -0.13934517 0.3784177
6 -0.14452305 -0.1252353 -0.13641825 -0.2352974 0.19777869 0.42328656 -0.19775535 0.16201688 0.021873856 -0.028112464 -0.094176374 0.19262396 0.2161858 -0.118268415 0.019227585 -0.035875432 0.076203555 -0.12553185 -0.06644478 0.13652249 -0.012611594 -0.3296585 0.39962858 0.34725067 -0.10919975 -0.13640077 0.1404591 0.22514491 -0.116121046 0.11703638 -0.17233628 -0.06342562 -0.0023015817 0.093529016 0.10540117 -0.20069663 0.2782514 0.2581004 -0.2186814 -0.31369466 -0.1823367 0.013928327 -0.0073093134 0.3024163 0.30710703 0.16001377 0.032717258 -0.240384 0.09149349 -0.060964428 -0.33551618 -0.33419532 -0.103353724 -0.28481394 0.22804832 -0.05061502 0.42708346 -0.09221486 0.18284829 -0.00853212 -0.26650158 0.21246715 0.06340719 -0.042459797 0.16349193 0.27369517 0.22622512 -0.07297346 0.02916148 0.24660596 0.25910094 0.14578743 -0.011108226 -0.0676984 0.14677535 0.028514188 -0.1821319 0.038268138 -0.18432269 0.29044008 -0.30269304 0.020791916 0.0014521632 0.05690554 -0.04537228 -0.22324745 0.0286294 -0.10438012 -0.026858032 0.044040058 0.15312104 0.010135741 0.064360134 -0.09010772 0.18427904 0.040526472 0.01890598 0.10652431 0.05162842 0.059337925 -0.021980051 -0.18250068 0.12547877 -0.17025378 0.2478014 -0.011142383 0.31229284 0.045570627 0.12383994 -0.17862193 0.4171588 0.07402494 -0.33556145 -0.011342221 -0.42807344 0.14302042 -0.14945184 -0.18946746 -0.14262225 0.059925627 -0.28206968 -0.034721863 -0.1360457 0.5363386 -0.37661868 0.0034440598 -0.2502718 0.39673254
28 -0.12675785 -0.074512556 -0.11407013 -0.035553258 0.23006803 0.2582642 -0.3103357 0.19738157 -0.062294703 0.057468556 -0.2817094 0.16177596 0.1839337 -0.032710053 -0.016607607 0.01935612 0.16625996 -0.15545589 0.008647613 0.06178612 -0.015837897 -0.28177032 0.38622105 0.35391343 -0.020183915 -0.16201232 0.03448591 0.193449 -0.11927283 0.17066944 -0.06336856 -0.14152996 0.18194337 0.23992126 0.062407784 -0.15570168 0.33073744 0.26054242 -0.15276134 -0.31616607 -0.06289754 0.0004845091 -0.18431555 0.1434074 0.2400433 0.06871826 0.054567106 -0.22161931 0.027311128 -0.111250006 -0.21531017 -0.3558935 -0.08685777 -0.3324511 0.29276344 -0.090334654 0.2668339 -0.016676731 0.23403563 0.06545304 -0.26111665 0.28466424 0.017835205 0.10488606 0.12712473 0.30714872 0.10392459 -0.102804065 -0.004851562 0.16172427 0.11112338 0.14154057 -0.008090734 0.00058641616 0.11346054 0.1792075 -0.19015338 -0.10609172 -0.18235089 0.18626033 -0.230763 0.09441263 0.08564439 0.0057348963 0.046458595 -0.19564669 0.06485721 -0.100067176 0.005395455 0.18060128 0.16968486 0.042421322 0.0040967753 -0.12226655 0.2602652 -0.024508985 -0.08559216 0.109575994 0.14941292 0.094037324 0.054061256 -0.06350482 0.09014599 -0.33366445 0.18168262 -0.042056702 0.022294734 0.049523048 0.06980287 -0.07580488 0.25454706 -0.03659924 -0.19010384 0.13156208 -0.35386264 0.09005258 -0.084933706 -0.12631623 -0.12617856 0.066545635 -0.26083833 -0.049193148 -0.15363304 0.4396955 -0.37147015 -0.021487754 -0.13564897 0.3506406
29 -0.13502884 -0.086699225 -0.12218012 -0.08211486 0.21373294 0.29570162 -0.28292468 0.18818031 -0.039605018 0.03905791 -0.23866782 0.17146005 0.18659003 -0.057690125 -0.0096053695 0.014716118 0.13937446 -0.15111117 -0.015406063 0.08061633 -0.011163092 -0.29317114 0.38470253 0.3509214 -0.03440096 -0.14867032 0.060144234 0.20320563 -0.111983396 0.15664746 -0.09152259 -0.12322646 0.13196643 0.204975 0.071872205 -0.16604051 0.31353137 0.25924328 -0.16187875 -0.31348506 -0.093175165 0.0072368374 -0.13811712 0.18658617 0.25391752 0.0903269 0.047105107 -0.22814707 0.04107833 -0.10088797 -0.24626072 -0.34576675 -0.082448944 -0.3202831 0.26916414 -0.07397968 0.30807474 -0.036353983 0.22082987 0.049819022 -0.25542268 0.2658655 0.031135468 0.06399581 0.13565251 0.29807693 0.1331641 -0.09275578 0.0018665575 0.17863761 0.1477208 0.13972366 -0.0052504465 -0.016425272 0.12393676 0.14024645 -0.18544881 -0.06970906 -0.18176273 0.20776194 -0.24320616 0.069997914 0.06339215 0.015630731 0.031638708 -0.20205805 0.052528936 -0.09513802 0.0021785072 0.15158029 0.17052831 0.04047442 0.02009818 -0.11524706 0.24006978 -0.0035731765 -0.061220895 0.107699744 0.12972088 0.08320475 0.039079778 -0.09681278 0.09904678 -0.28219554 0.20152834 -0.039094962 0.095294476 0.047286555 0.07510634 -0.10266378 0.2889285 -0.00063939526 -0.22481638 0.09200802 -0.36559707 0.10107871 -0.10268908 -0.14637692 -0.13147841 0.066324815 -0.2671017 -0.042165104 -0.14617251 0.46331382 -0.3681977 -0.0184739 -0.16278134 0.36132362
31 -0.13603403 -0.078233734 -0.12410256 -0.05282927 0.22327395 0.28138104 -0.30899942 0.2008045 -0.055730995 0.0519319 -0.2759291 0.1698577 0.18955676 -0.04368846 -0.02009806 0.022018109 0.16055304 -0.16322352 -0.0060177483 0.06994574 -0.015949627 -0.28890198 0.38825735 0.3561954 -0.026226876 -0.16486073 0.043252487 0.20467745 -0.116190664 0.16695893 -0.07576184 -0.13317455 0.16679272 0.23448572 0.07063839 -0.16480744 0.3360852 0.26239192 -0.15714714 -0.32082057 -0.0796721 0.0010255469 -0.16780172 0.16676885 0.24733208 0.08420244 0.053463485 -0.22989234 0.032176703 -0.11228462 -0.22869377 -0.3557006 -0.08919761 -0.33304957 0.28462154 -0.08683092 0.29084113 -0.026078647 0.23117356 0.061976276 -0.26089948 0.2793818 0.030272406 0.09516232 0.1364902 0.30600277 0.110648654 -0.09729481 0.00036051223 0.16979715 0.12256711 0.14130786 -0.0080900835 -0.0016154953 0.121694185 0.16518286 -0.19079915 -0.09755946 -0.18272972 0.19946215 -0.23868339 0.091156274 0.0815583 0.010353819 0.041174445 -0.19753765 0.057487767 -0.099564224 0.007937838 0.16876881 0.16676283 0.04721189 0.0052187 -0.11977053 0.2523368 -0.014531804 -0.07665119 0.10991074 0.14446278 0.089169614 0.047554772 -0.077974655 0.09068876 -0.32315567 0.19831945 -0.043105856 0.05783831 0.054672346 0.0677051 -0.08891252 0.26928502 -0.022179622 -0.21301162 0.11830293 -0.36437112 0.099363446 -0.1020678 -0.13414675 -0.13286185 0.07047287 -0.2709071 -0.053617135 -0.15278421 0.46187916 -0.3792374 -0.028324028 -0.15528987 0.36380038
20 -0.12854397 -0.090475835 -0.119328015 -0.12775941 0.19737002 0.31703243 -0.2374564 0.16331594 -0.011721463 0.018916678 -0.17430004 0.17595205 0.18240711 -0.07370423 -0.00056762685 0.008379954 0.10640784 -0.12789 -0.025549684 0.09045706 -0.010402094 -0.28705797 0.3614191 0.3231535 -0.061796278 -0.13572744 0.078387775 0.19475691 -0.105285615 0.13344787 -0.11373605 -0.09888117 0.08090768 0.15824252 0.0803354 -0.16372243 0.28601876 0.24063316 -0.16864333 -0.2949124 -0.119143225 0.007560189 -0.08690106 0.20653045 0.2540209 0.10567142 0.039649308 -0.21995732 0.05889349 -0.08646284 -0.25974652 -0.31688464 -0.08475556 -0.28960916 0.24773726 -0.06435759 0.324835 -0.05378718 0.1934707 0.028568171 -0.23862946 0.23915415 0.043113165 0.016662298 0.13235582 0.26269427 0.15809076 -0.07374152 0.016565338 0.19296914 0.18133342 0.13123986 -0.013145782 -0.034217346 0.12067809 0.09820719 -0.18019179 -0.0284324 -0.172833 0.22047509 -0.24923053 0.04991206 0.040517885 0.027079357 0.004578923 -0.19029333 0.043322627 -0.09092812 -0.015736133 0.11170017 0.15512325 0.0314883 0.027240198 -0.09439187 0.21011163 0.012461185 -0.029033966 0.1028747 0.09534561 0.06990778 0.011948403 -0.12008128 0.10076018 -0.22444385 0.20147291 -0.030309746 0.16037314 0.037100382 0.08692165 -0.12272332 0.3188344 0.026693802 -0.24712506 0.056200843 -0.3601377 0.11522138 -0.11051005 -0.14974153 -0.12752979 0.061428018 -0.25677672 -0.035044156 -0.13062108 0.45906687 -0.34562156 -0.0054645087 -0.18237728 0.3510809
26 -0.121344365 -0.060670678 -0.10539841 -0.014390066 0.21837643 0.22456406 -0.30278003 0.19261478 -0.06904798 0.057987753 -0.28738964 0.1455067 0.1689659 -0.024535634 -0.025011199 0.022971371 0.1608522 -0.15233995 0.015148852 0.052063506 -0.01030864 -0.25990692 0.35330346 0.32402998 -0.004573196 -0.15237732 0.019384157 0.17936954 -0.11371343 0.16140138 -0.042989068 -0.13342306 0.18567407 0.2370161 0.05687646 -0.14129257 0.31237406 0.245401 -0.13286814 -0.29281595 -0.05455257 0.003851745 -0.18325111 0.11976895 0.22404003 0.060251515 0.048602946 -0.20862354 0.018223755 -0.113293976 -0.18917514 -0.33192715 -0.07655831 -0.31589764 0.27627674 -0.087374985 0.23596634 -0.008795031 0.2211676 0.0709187 -0.23838528 0.2739995 0.009930044 0.11951221 0.11352085 0.2947641 0.07884347 -0.09696781 -0.007801502 0.13772306 0.08948046 0.13301843 0.0006368992 0.013892366 0.1063738 0.17544493 -0.176118 -0.10836892 -0.17201297 0.16146699 -0.20314495 0.09380241 0.09256416 -0.00446996 0.0587952 -0.18063581 0.06256116 -0.09734535 0.011624393 0.18137127 0.16207644 0.050356604 0.00036353501 -0.12144338 0.24574776 -0.029464496 -0.09159452 0.10382131 0.14619654 0.090848416 0.06262584 -0.048429802 0.07983115 -0.32905644 0.16869214 -0.044025287 -0.0032562101 0.047322296 0.05628939 -0.0659998 0.2170466 -0.043816634 -0.17032842 0.135305 -0.32412985 0.0741208 -0.074076 -0.10937762 -0.11693536 0.06608883 -0.23821558 -0.04870209 -0.1477359 0.40153334 -0.3441279 -0.02453103 -0.115867175 0.3222731
5 -0.12948653 -0.09920336 -0.11316699 -0.15275009 0.19570883 0.33964947 -0.2268023 0.16112581 -0.005839994 0.00060617964 -0.15010971 0.1712457 0.18776771 -0.077631675 0.0041758376 -0.011632209 0.10082949 -0.12424329 -0.036551952 0.10614719 -0.0145954015 -0.29100037 0.36833578 0.32195243 -0.069208324 -0.12774286 0.091999196 0.2002773 -0.108268104 0.12692775 -0.12644388 -0.08549345 0.06267852 0.13655832 0.08528011 -0.16811654 0.2709736 0.24063626 -0.1835818 -0.29182664 -0.12779802 0.0074546486 -0.06677942 0.225724 0.26390296 0.120452106 0.0337873 -0.22143559 0.061132956 -0.07321867 -0.26714855 -0.31891307 -0.09103389 -0.2836756 0.2337999 -0.05880098 0.34456703 -0.058277555 0.1841488 0.023583231 -0.24923277 0.22500056 0.0427956 0.017323667 0.13755113 0.261217 0.17292319 -0.07841649 0.022037871 0.20011136 0.18475431 0.14029133 -0.013076047 -0.043733094 0.12921698 0.074269585 -0.17355011 -0.0089628305 -0.16394521 0.23182595 -0.26076397 0.039656516 0.024390483 0.03450644 -0.013867805 -0.20111354 0.0346455 -0.09164762 -0.01254872 0.08551412 0.15203846 0.019497396 0.038121313 -0.09084753 0.19787616 0.017805124 -0.01631386 0.100044355 0.08037596 0.06554636 0.0036188606 -0.13011965 0.10577314 -0.21216933 0.20298076 -0.019443434 0.19350867 0.04463794 0.090944484 -0.13023378 0.33160368 0.03225499 -0.26028597 0.040480237 -0.36656502 0.11886195 -0.11795782 -0.15402462 -0.12033392 0.057433575 -0.25248864 -0.037166297 -0.13527554 0.46741292 -0.3448356 -0.0034556289 -0.19411562 0.357344
25 -0.131564 -0.06970491 -0.10846503 -0.05743708 0.22104104 0.26953077 -0.28858858 0.18539786 -0.044521924 0.04401935 -0.25081092 0.16105054 0.1794931 -0.040269755 -0.017641298 0.017191304 0.14909339 -0.15175779 -0.0018610279 0.06752863 -0.018443633 -0.28520837 0.37389147 0.33890304 -0.030901847 -0.15033878 0.04285924 0.18982808 -0.113853045 0.1583791 -0.06903594 -0.12508313 0.15117458 0.21650413 0.06989916 -0.15248062 0.31246755 0.25433 -0.1525637 -0.30556422 -0.074631475 0.010329003 -0.15835789 0.15682757 0.24489355 0.078723386 0.05097425 -0.22101629 0.038164485 -0.104538985 -0.21987846 -0.34227216 -0.085358374 -0.32137457 0.2775121 -0.08076539 0.28408924 -0.019882804 0.21666569 0.0616773 -0.2508322 0.27113223 0.027545603 0.08828863 0.12856235 0.29254574 0.11124354 -0.092320114 0.0015340021 0.16329792 0.12730911 0.14071888 -0.0052536232 -0.006290613 0.11898266 0.1502595 -0.18539813 -0.08333557 -0.17887281 0.19319089 -0.22980052 0.080094814 0.073991254 0.006403215 0.03969315 -0.19159104 0.05527913 -0.095756926 0.0062679728 0.15657397 0.16695808 0.044061612 0.0102912495 -0.11408116 0.2456074 -0.016757965 -0.07555732 0.10481367 0.13204904 0.088662304 0.0477436 -0.07634077 0.09035067 -0.29795325 0.18714038 -0.04357552 0.057251472 0.0445763 0.07347643 -0.08844999 0.2675835 -0.016388535 -0.20495655 0.110680945 -0.34602606 0.09184488 -0.09143723 -0.12831938 -0.124432795 0.061956994 -0.2523117 -0.03979347 -0.13990584 0.43958294 -0.3570936 -0.01152935 -0.14904661 0.3458276
11 -0.15149537 -0.124129854 -0.13551821 -0.21810316 0.20061232 0.4127748 -0.2179042 0.17276816 0.014913772 -0.021951433 -0.1211864 0.19206114 0.21475998 -0.11571462 0.020091264 -0.02345399 0.08832649 -0.13422142 -0.054964423 0.13208692 -0.0073038423 -0.337279 0.40741757 0.35987827 -0.10045509 -0.13702126 0.13147704 0.22810668 -0.11642395 0.12815438 -0.16736105 -0.076355904 0.014386144 0.11283441 0.102871075 -0.19158953 0.28260192 0.26671973 -0.21518517 -0.3203633 -0.17792411 0.01222684 -0.028623104 0.2839812 0.3101907 0.15579948 0.03633579 -0.24611442 0.08896196 -0.06668183 -0.3311297 -0.34703264 -0.101974875 -0.2980674 0.23857675 -0.058009177 0.41844672 -0.08847464 0.19334288 0.0073717395 -0.27407426 0.23204264 0.061319858 -0.020284852 0.16105631 0.2845496 0.22200152 -0.07589077 0.030673 0.24125472 0.24600063 0.15148999 -0.018424667 -0.06691282 0.14609769 0.04976786 -0.18848838 0.021245722 -0.18135364 0.27996802 -0.30435187 0.026021782 0.00834681 0.04918149 -0.036652856 -0.22508806 0.027894992 -0.1051939 -0.02440373 0.061447076 0.1583028 0.020049268 0.06366446 -0.09463114 0.1987038 0.031976018 -0.0005323321 0.11053755 0.06746776 0.06327485 -0.013212389 -0.17224559 0.12817322 -0.1948671 0.24592347 -0.009185958 0.28167668 0.047517613 0.11841119 -0.17246628 0.40795097 0.061397776 -0.32422677 0.004572854 -0.42914844 0.14117326 -0.13864478 -0.19162284 -0.14054996 0.0594731 -0.28258464 -0.037047338 -0.1431494 0.5385939 -0.38548398 0.0032809174 -0.23998532 0.39937073
13 -0.14043076 -0.09522573 -0.12186192 -0.13236746 0.19940487 0.33290496 -0.25087097 0.16739234 -0.011901088 0.013729875 -0.18504253 0.17630105 0.1911993 -0.0839117 0.0020048714 0.00015522818 0.11531928 -0.13985743 -0.034279127 0.10035116 -0.008005649 -0.3020666 0.38258252 0.34353945 -0.061537627 -0.14526616 0.08186131 0.20193705 -0.1051403 0.13951391 -0.11762337 -0.09700232 0.08066856 0.16707782 0.07835651 -0.17502317 0.29184255 0.25465256 -0.17365713 -0.31120643 -0.121353276 0.010732483 -0.09209471 0.21960033 0.27131477 0.116263315 0.042712916 -0.22891235 0.06340592 -0.08885663 -0.26978043 -0.33111256 -0.081435636 -0.29978594 0.25619084 -0.06877547 0.34588373 -0.057242848 0.20531088 0.03415102 -0.25555706 0.24909167 0.045730673 0.023801235 0.14114551 0.2813767 0.16959281 -0.082956776 0.019789977 0.19583231 0.18639317 0.14075416 -0.016963052 -0.03819224 0.1272769 0.103749864 -0.18389887 -0.0296535 -0.17722358 0.22638075 -0.25841957 0.052187644 0.044609923 0.031950463 0.003523326 -0.20330068 0.044829533 -0.09420221 -0.011802954 0.115892194 0.1562852 0.030238062 0.030304737 -0.10330031 0.22167999 0.012170977 -0.02749151 0.10612971 0.10049341 0.068441145 0.015096986 -0.12005968 0.10642693 -0.23533832 0.2128753 -0.02572505 0.16985567 0.041606646 0.09382672 -0.1250327 0.33101612 0.024641763 -0.2555104 0.057943203 -0.37659895 0.11718438 -0.12059403 -0.16260651 -0.12710291 0.0601495 -0.26783976 -0.041511763 -0.13457099 0.48084825 -0.3604987 -0.010799231 -0.1957548 0.36574382
23 -0.1333792 -0.080645576 -0.12477676 -0.05384271 0.2267359 0.27885568 -0.30622834 0.1988283 -0.05371281 0.045181956 -0.27249548 0.16997589 0.18180278 -0.04370422 -0.016952503 0.01600543 0.15454495 -0.1556837 -0.0057021873 0.0722076 -0.0137330275 -0.28420573 0.38634726 0.3572948 -0.026943672 -0.16180645 0.042441323 0.20017375 -0.11558928 0.16166215 -0.0751641 -0.13094567 0.16441539 0.22867522 0.069632694 -0.16282192 0.32636893 0.25939783 -0.15689777 -0.31394416 -0.083834305 -0.00067798985 -0.16214423 0.16815189 0.25246304 0.08357781 0.051314443 -0.22853094 0.035724476 -0.10426683 -0.23061147 -0.35628843 -0.08786278 -0.32540148 0.28289983 -0.08546287 0.28980377 -0.027065437 0.2306745 0.06331287 -0.2562745 0.27586207 0.026232297 0.0913109 0.13846384 0.3027288 0.11228649 -0.10100242 -0.0009296781 0.17409313 0.12194268 0.13959534 -0.008534258 -0.0075215483 0.12373281 0.16235238 -0.19065931 -0.090204656 -0.18517797 0.20185739 -0.2344146 0.08490871 0.07619892 0.013952715 0.03683283 -0.19881472 0.057323504 -0.10187573 0.0040297797 0.16754934 0.17192948 0.04127427 0.008118037 -0.11904718 0.247289 -0.010951697 -0.07638574 0.1059298 0.1402257 0.09093147 0.052570738 -0.081900895 0.09625295 -0.31641397 0.19673178 -0.04062504 0.058827452 0.053593144 0.06897344 -0.090223804 0.26614413 -0.019757345 -0.20932268 0.11120812 -0.3649262 0.09486556 -0.098053284 -0.1311233 -0.13067068 0.07456516 -0.2667858 -0.04671453 -0.1542634 0.4573159 -0.3746742 -0.026841624 -0.1521335 0.35740197
10 -0.12871526 -0.08084279 -0.11732267 -0.054890137 0.21693544 0.2701402 -0.30028662 0.18882746 -0.04849162 0.049444944 -0.26521388 0.16248176 0.18005101 -0.043610215 -0.01256903 0.022354117 0.14517884 -0.15018517 -0.006683477 0.068711095 -0.011074763 -0.2786787 0.379728 0.34577432 -0.026258392 -0.15564239 0.040726352 0.1929873 -0.11185028 0.1627378 -0.0722954 -0.13262792 0.15804735 0.2249632 0.07007052 -0.15736748 0.32478198 0.25127375 -0.15030904 -0.30817068 -0.077286765 0.0013161969 -0.16446593 0.1589564 0.24378502 0.08181361 0.047189288 -0.2215987 0.03459961 -0.10717807 -0.2279952 -0.34555367 -0.08232622 -0.32049468 0.2770457 -0.08268238 0.2794462 -0.019262025 0.21843508 0.059294432 -0.25076246 0.27469012 0.026692927 0.084018335 0.12840798 0.2999236 0.10764363 -0.09780441 0.0027240622 0.1680617 0.12176955 0.13645428 -0.0075969063 -0.002621288 0.118426904 0.1640931 -0.18521972 -0.09057355 -0.17806172 0.19627024 -0.2279386 0.08414698 0.073262975 0.0094570415 0.04032093 -0.19079581 0.060661945 -0.10041001 -0.0009545155 0.16543263 0.16164462 0.04127346 0.008316045 -0.115661286 0.24530874 -0.010503852 -0.074495494 0.10055557 0.14038968 0.08425831 0.04618369 -0.077396 0.08659297 -0.3076494 0.18750094 -0.03949494 0.053547494 0.05028403 0.066890776 -0.08590905 0.26012307 -0.019976662 -0.20037758 0.10956566 -0.35437685 0.09556118 -0.09817933 -0.13077022 -0.12796997 0.07218091 -0.255344 -0.048997752 -0.1520491 0.4459239 -0.36411938 -0.019355612 -0.15240662 0.34851792
22 -0.14219368 -0.10146225 -0.13092977 -0.14637995 0.21239887 0.3511209 -0.25819835 0.17744353 -0.014744978 0.016787538 -0.18809119 0.19167891 0.19697909 -0.087327935 0.0047502 0.002527284 0.1179044 -0.14525963 -0.03651372 0.10421044 -0.010774872 -0.31666386 0.398483 0.35819712 -0.064721525 -0.1485913 0.085331485 0.21116431 -0.115105614 0.14375536 -0.12109211 -0.10075698 0.08804126 0.17253108 0.088019595 -0.18194398 0.312052 0.26451027 -0.18268637 -0.32455406 -0.12976985 0.0045674196 -0.09121953 0.23206794 0.28192168 0.11648641 0.044609834 -0.23687208 0.06880269 -0.0854354 -0.2824177 -0.35298744 -0.093032025 -0.3154249 0.26598933 -0.06729012 0.36087996 -0.057322524 0.21532285 0.02885688 -0.26381496 0.25422165 0.05104257 0.019896844 0.14670819 0.28624368 0.17482048 -0.08146232 0.020860882 0.20728548 0.19906257 0.1467421 -0.016235614 -0.03852848 0.13457738 0.10426692 -0.19603112 -0.031643406 -0.18631056 0.23920268 -0.27668938 0.050675634 0.03661712 0.026934259 -0.0041764667 -0.21117365 0.04439431 -0.09615697 -0.01617508 0.11260548 0.16610923 0.031620882 0.032497402 -0.106187075 0.22456078 0.010414012 -0.030693883 0.109814525 0.09992932 0.076875106 0.01630409 -0.13382934 0.10747226 -0.2409088 0.22189733 -0.024443168 0.18019639 0.043874305 0.10116723 -0.1352366 0.34514734 0.031840555 -0.27201146 0.057607163 -0.3973729 0.1272245 -0.12299103 -0.17062764 -0.13683757 0.0708845 -0.27282667 -0.041365974 -0.1439393 0.5033976 -0.3827126 -0.009933274 -0.19921704 0.38490888
18 -0.13400015 -0.0878807 -0.11891971 -0.11367685 0.20318004 0.31194574 -0.2548223 0.17303824 -0.026490986 0.02439767 -0.19795108 0.17649068 0.18330167 -0.0710466 -0.0036975248 0.0013985159 0.11834246 -0.13770546 -0.022831917 0.089560434 -0.012645679 -0.2897339 0.37596294 0.33520764 -0.050298158 -0.14647838 0.071167514 0.19525802 -0.10374252 0.13986723 -0.10217043 -0.10511373 0.0987378 0.17859064 0.07936276 -0.16501804 0.29406857 0.24743071 -0.1685898 -0.30411416 -0.11275336 0.0058425143 -0.103371635 0.20061947 0.25787917 0.101824716 0.041340295 -0.21978635 0.051402137 -0.08585632 -0.25143185 -0.32914 -0.0811547 -0.29798707 0.2576181 -0.0673797 0.31875667 -0.047600895 0.20383103 0.038485106 -0.24834055 0.24763075 0.042598292 0.037181947 0.13932632 0.27853227 0.15076953 -0.083495975 0.015628096 0.18403241 0.16720437 0.13469046 -0.009408487 -0.030984882 0.12434821 0.110563755 -0.17715196 -0.048728526 -0.17383376 0.21398805 -0.25029096 0.061022837 0.043971155 0.025873391 0.006683098 -0.19631805 0.045749187 -0.091079205 -0.0049552666 0.120105706 0.15518889 0.03199442 0.02528444 -0.10588145 0.22333506 0.0065421783 -0.040647488 0.10439791 0.10407126 0.07256106 0.0214503 -0.11316021 0.10355516 -0.24775444 0.20533925 -0.028360851 0.13934685 0.043084044 0.08416675 -0.10960138 0.3101991 0.015628548 -0.24044134 0.06810023 -0.36533007 0.111689694 -0.105716094 -0.14643307 -0.12419949 0.066836484 -0.25644526 -0.04176715 -0.13817443 0.46143818 -0.35845122 -0.0121307885 -0.17768869 0.35853478
19 -0.11624789 -0.06815047 -0.113633014 -0.02801273 0.20938471 0.23511386 -0.29497945 0.18649942 -0.060088526 0.05487237 -0.27777332 0.1504829 0.1699577 -0.029037032 -0.0215376 0.018706925 0.1547552 -0.14850922 0.0011664885 0.057122935 -0.010080879 -0.26178944 0.36184904 0.3331577 -0.013949584 -0.15479395 0.032176334 0.18152836 -0.1081108 0.15892388 -0.05433594 -0.13583934 0.17276235 0.22950196 0.061053988 -0.14752604 0.31590605 0.24866278 -0.14211325 -0.29211974 -0.064703025 0.0039756387 -0.17206562 0.13907956 0.2271769 0.06513034 0.049794424 -0.21021824 0.02668089 -0.103104144 -0.20501761 -0.333489 -0.08078186 -0.31152505 0.26928326 -0.08161875 0.24567069 -0.009491622 0.21995334 0.063441515 -0.23843928 0.265143 0.015874965 0.10652282 0.12073766 0.2878688 0.088661164 -0.09401634 -0.0055066794 0.15318558 0.09510124 0.13342457 -0.0055132676 0.007659232 0.10709895 0.17109269 -0.17602016 -0.10124156 -0.17218558 0.17654757 -0.21449077 0.09401474 0.08195783 0.0066517624 0.045122202 -0.18527307 0.06134222 -0.09935619 0.0044180118 0.16628936 0.15966119 0.03832212 0.0036626465 -0.11630273 0.24098256 -0.01678746 -0.077710815 0.09638952 0.14191325 0.08751333 0.057757027 -0.061622407 0.08106384 -0.31942606 0.17256336 -0.04539683 0.019532138 0.05425876 0.062587045 -0.07023292 0.23434845 -0.033205554 -0.18158786 0.117725104 -0.32512325 0.0795646 -0.08427164 -0.10868625 -0.122771345 0.070164874 -0.24123375 -0.053882588 -0.1481777 0.41765904 -0.351824 -0.026195293 -0.12850364 0.3295832
16 -0.13381667 -0.07958805 -0.1261152 -0.034149457 0.24508542 0.27238297 -0.3395852 0.21473761 -0.06964862 0.06631557 -0.3124481 0.17847174 0.19559658 -0.039444957 -0.022730906 0.02417169 0.17066845 -0.16838929 0.0030850398 0.06283547 -0.017148811 -0.29774952 0.410286 0.37430313 -0.015951073 -0.17162251 0.03148378 0.20837781 -0.12298149 0.1838534 -0.06257547 -0.15136746 0.1979168 0.25890538 0.06725049 -0.1670018 0.3593834 0.2794021 -0.15641564 -0.33301252 -0.07096411 5.5996516e-05 -0.19430397 0.15596993 0.2552218 0.077421464 0.055695415 -0.23926878 0.031877447 -0.11844501 -0.22924988 -0.37920487 -0.08517559 -0.35386515 0.31023026 -0.09496431 0.28184745 -0.01728162 0.24995302 0.072505444 -0.27441472 0.3063881 0.022039376 0.112772934 0.13772053 0.32952815 0.10282145 -0.10669784 -0.004741394 0.17285335 0.11735965 0.14911368 -0.0045627826 0.003515444 0.12545848 0.19370352 -0.19729868 -0.113142475 -0.19482878 0.19806355 -0.23925969 0.099535935 0.09421235 0.0076761614 0.051063895 -0.20716746 0.06470579 -0.11063063 0.0048842896 0.19208914 0.18094335 0.047367867 -7.690432e-05 -0.13150498 0.27117026 -0.023914455 -0.09297395 0.11349354 0.1664116 0.09502376 0.06338604 -0.074018076 0.09436292 -0.3561029 0.19586487 -0.048216376 0.021209694 0.051933985 0.07091552 -0.07844285 0.26384497 -0.038835257 -0.20557976 0.13398503 -0.37401697 0.09337245 -0.09237757 -0.12916955 -0.14044188 0.07888225 -0.2754997 -0.058165822 -0.16581707 0.4718589 -0.39817074 -0.029122425 -0.14936407 0.37625402
27 -0.1326811 -0.07341191 -0.12342973 -0.00788623 0.23525418 0.23284084 -0.34410045 0.21427818 -0.08314881 0.067190796 -0.3297734 0.16327745 0.18286775 -0.015267627 -0.029098094 0.025931608 0.18874854 -0.17485291 0.01857872 0.05416747 -0.018360436 -0.2814112 0.39446583 0.3679562 0.00075736654 -0.17596498 0.01912849 0.20037188 -0.1236135 0.18045683 -0.044722944 -0.15712371 0.21983677 0.274823 0.060261328 -0.15373245 0.35587382 0.27414423 -0.1479351 -0.32028484 -0.0543155 -0.0017479066 -0.21861562 0.12689297 0.23971346 0.060089566 0.061678275 -0.22834249 0.015640153 -0.1269393 -0.20227277 -0.36952648 -0.092122704 -0.3473632 0.30013815 -0.09630962 0.24769957 -0.0039627803 0.24756117 0.07970421 -0.26582274 0.30393317 0.014528863 0.145365 0.12901212 0.3199523 0.07713482 -0.107282996 -0.0069192247 0.15537784 0.081796125 0.14633422 -0.0011242948 0.020061243 0.11781172 0.20649283 -0.18647842 -0.13548358 -0.1855156 0.18091635 -0.22487423 0.11616794 0.099947535 0.0006771616 0.06156675 -0.19590811 0.0670056 -0.10902833 0.019879203 0.2041105 0.17527905 0.049225487 -0.0054759085 -0.13089299 0.27025598 -0.02710657 -0.10543207 0.104877375 0.1725059 0.097984746 0.077036865 -0.0549805 0.08537204 -0.37719142 0.17983672 -0.043556195 -0.015647238 0.0600366 0.056698874 -0.061805017 0.2294695 -0.05932213 -0.17825092 0.15251519 -0.35207513 0.07925765 -0.0842304 -0.110802315 -0.12912847 0.079684995 -0.26111335 -0.06311729 -0.16763213 0.4372256 -0.38382196 -0.037414983 -0.11956826 0.35916537
15 -0.13005972 -0.0766172 -0.11821631 -0.030017024 0.22138233 0.25116765 -0.31570596 0.19750404 -0.06137763 0.05711823 -0.2907003 0.15962288 0.17880271 -0.03716476 -0.020693213 0.021760572 0.15960376 -0.15614885 -0.0005367081 0.063663855 -0.013733297 -0.2745045 0.37732396 0.34964278 -0.013118833 -0.16184358 0.033751056 0.1954248 -0.11222364 0.16467527 -0.061069697 -0.14230372 0.17653194 0.24217218 0.06244645 -0.1568388 0.32676437 0.2612009 -0.14367591 -0.3055267 -0.064539246 0.0014807872 -0.18243222 0.1464584 0.2386995 0.073038414 0.054260306 -0.22016549 0.023781331 -0.11265322 -0.21626206 -0.34510204 -0.08525763 -0.32092774 0.28347462 -0.0870561 0.2645713 -0.0112145115 0.22574225 0.07028036 -0.256169 0.281053 0.019941747 0.111887835 0.13159554 0.30623364 0.09643811 -0.10003081 -0.0024132507 0.1583219 0.10475816 0.14534634 -0.010177049 0.0071401093 0.111092396 0.17645694 -0.18243638 -0.10687967 -0.1761973 0.18335636 -0.22831838 0.091361836 0.08962574 0.010148034 0.05050892 -0.18832447 0.0581982 -0.10067035 0.007638821 0.17919363 0.16307123 0.04122861 0.0053724553 -0.11989916 0.24947779 -0.016045237 -0.08189993 0.10457006 0.14819074 0.091769174 0.056093607 -0.06861258 0.087217905 -0.33410764 0.18512784 -0.039412465 0.020819124 0.05633072 0.060861833 -0.075285815 0.24329044 -0.03639068 -0.18572976 0.12427511 -0.35031754 0.084169604 -0.08698055 -0.12021949 -0.12794408 0.07242922 -0.25377733 -0.05080822 -0.15312278 0.43815246 -0.3678394 -0.02974929 -0.13657768 0.34690574
21 -0.12816879 -0.07160333 -0.120819315 -0.019101601 0.23057796 0.24393113 -0.319613 0.20559262 -0.06839497 0.059627347 -0.30635655 0.15707782 0.17688741 -0.021024933 -0.028130235 0.02198726 0.1732084 -0.16357861 0.006861012 0.05451323 -0.015089627 -0.27436593 0.3797327 0.35198572 -0.009513726 -0.16284111 0.028037427 0.19327146 -0.12020569 0.17040873 -0.054388124 -0.14607735 0.19665886 0.2530848 0.060910303 -0.15262243 0.33446074 0.26519242 -0.14245878 -0.3095915 -0.056107424 0.000916157 -0.19334242 0.13451764 0.2378367 0.06727059 0.05825543 -0.21490511 0.018282048 -0.11546427 -0.20462519 -0.35062638 -0.08461227 -0.33156046 0.2909385 -0.094213 0.2560499 -0.011387256 0.2329773 0.06949409 -0.2566192 0.2835112 0.018768989 0.1277931 0.12789302 0.31016582 0.08262154 -0.10616433 -0.009727356 0.15592593 0.09524447 0.14299253 -0.00056047406 0.012413888 0.112042904 0.18790711 -0.18587233 -0.12070949 -0.18132937 0.18116894 -0.22220854 0.10322511 0.09295511 -0.00019135211 0.05722917 -0.19444202 0.061016984 -0.10577127 0.010684124 0.1912824 0.1715492 0.043742087 -0.0018986526 -0.12087626 0.25586948 -0.02253571 -0.09528153 0.10230014 0.15849712 0.094782636 0.063410245 -0.05596641 0.085870504 -0.34695005 0.17948416 -0.04494794 0.0039637676 0.05564825 0.055493817 -0.06978583 0.23184086 -0.03985921 -0.1814039 0.14024217 -0.34554395 0.08203874 -0.086444266 -0.11499074 -0.12654828 0.07019378 -0.25926208 -0.055193566 -0.15633552 0.42994332 -0.37311465 -0.032281466 -0.13129489 0.34639847
17 -0.13849603 -0.11090612 -0.12379024 -0.20272624 0.18185303 0.37822953 -0.19872802 0.15858872 0.008140612 -0.02186783 -0.106981024 0.17629191 0.19836469 -0.104475774 0.0124505395 -0.02683741 0.07583007 -0.120735124 -0.05146507 0.11955726 -0.012616227 -0.30920208 0.36612895 0.32518542 -0.09416766 -0.12417543 0.120862946 0.20643182 -0.10898413 0.11286008 -0.15160169 -0.07124782 0.011066033 0.102355905 0.09135198 -0.18077402 0.2635119 0.2412207 -0.19392551 -0.2889801 -0.16215861 0.010874842 -0.025196321 0.26052132 0.28144297 0.14251804 0.031978074 -0.22759937 0.08029655 -0.058953375 -0.30162632 -0.31469736 -0.091035 -0.27328554 0.2247918 -0.04603718 0.38478222 -0.084535286 0.17852865 0.005652508 -0.24800158 0.206485 0.056009367 -0.022662405 0.1468689 0.25627643 0.19830158 -0.070197925 0.029217567 0.22216472 0.22785872 0.14266098 -0.016058225 -0.06024909 0.13868712 0.0414039 -0.17016487 0.026078815 -0.16534728 0.2562463 -0.28044036 0.020164428 0.0032214995 0.040606637 -0.033997487 -0.2109456 0.024172695 -0.09335047 -0.017279644 0.053596128 0.14718649 0.017291026 0.056658696 -0.089724556 0.18586762 0.029908221 0.0032753046 0.10438953 0.055956233 0.054361567 -0.009757315 -0.15846327 0.11511756 -0.17606358 0.22180443 -0.011734198 0.25854576 0.04039864 0.10822034 -0.15720998 0.3756819 0.056425214 -0.29215258 0.006094991 -0.3918685 0.12694977 -0.13240592 -0.17728789 -0.12630399 0.053979266 -0.2638731 -0.030013906 -0.13206424 0.49256578 -0.3480613 0.0012463627 -0.21818049 0.36709028
12 -0.1269057 -0.08611397 -0.11423693 -0.115629874 0.19825056 0.30894646 -0.25098565 0.17234427 -0.021917209 0.02270889 -0.19221874 0.17102079 0.18088257 -0.0646408 0.0013057045 0.004173232 0.11414554 -0.13226049 -0.027084215 0.09170505 -0.010887159 -0.28093883 0.36743388 0.32744506 -0.053109024 -0.13863227 0.06810251 0.19489813 -0.10549837 0.13975583 -0.10632997 -0.10408124 0.09623725 0.16748662 0.07773909 -0.15785994 0.29060388 0.24018846 -0.16695556 -0.2954319 -0.10654357 0.006613129 -0.10093498 0.20130596 0.25061896 0.09963105 0.04161561 -0.2179298 0.051824268 -0.088269636 -0.2495387 -0.32233647 -0.08221111 -0.29266846 0.24838637 -0.06490545 0.31785128 -0.04254524 0.1957885 0.03649174 -0.24562766 0.24142492 0.03956827 0.037174296 0.13071987 0.2690994 0.14856282 -0.08450102 0.015927894 0.1839015 0.16204724 0.13159674 -0.012697771 -0.027276386 0.12364988 0.10801867 -0.17651989 -0.043506976 -0.16777551 0.21411994 -0.24512228 0.05409964 0.043552734 0.022553353 0.007121949 -0.19162363 0.046965793 -0.09281785 -0.006351309 0.11309364 0.154263 0.03198164 0.024817681 -0.100324616 0.21569893 0.00494845 -0.035807297 0.10110205 0.101131044 0.0691037 0.018571848 -0.11033793 0.09967973 -0.23817852 0.1983193 -0.027714532 0.13896902 0.04371991 0.08585818 -0.11099065 0.2983386 0.01793441 -0.23775262 0.061500296 -0.35939577 0.10815642 -0.10771723 -0.14182772 -0.12468572 0.06270461 -0.25233936 -0.042016666 -0.13373865 0.4507735 -0.3496316 -0.008289408 -0.176876 0.3488142
